digraph Tree {
node [shape=box, style="filled", color="black", fontname="helvetica"] ;
edge [fontname="helvetica"] ;
0 [label="BMI <= 26.85\nsquared_error = 6250.074\nsamples = 186\nvalue = 152.757", fillcolor="#f4c9aa"] ;
1 [label="LTG <= 4.909\nsquared_error = 2960.294\nsamples = 115\nvalue = 113.802", fillcolor="#f8decc"] ;
0 -> 1 [labeldistance=2.5, labelangle=45, headlabel="True"] ;
2 [label="HDL <= 44.5\nsquared_error = 2009.591\nsamples = 91\nvalue = 99.575", fillcolor="#fae6d8"] ;
1 -> 2 ;
3 [label="TCH <= 4.105\nsquared_error = 2302.022\nsamples = 19\nvalue = 128.667", fillcolor="#f7d6bf"] ;
2 -> 3 ;
4 [label="squared_error = 2301.333\nsamples = 6\nvalue = 167.0", fillcolor="#f2c19d"] ;
3 -> 4 ;
5 [label="squared_error = 1842.993\nsamples = 13\nvalue = 119.083", fillcolor="#f8dcc7"] ;
3 -> 5 ;
6 [label="BP <= 86.5\nsquared_error = 1681.502\nsamples = 72\nvalue = 92.48", fillcolor="#fbeadf"] ;
2 -> 6 ;
7 [label="TCH <= 3.465\nsquared_error = 1069.91\nsamples = 24\nvalue = 74.3", fillcolor="#fdf5ef"] ;
6 -> 7 ;
8 [label="LDL <= 78.0\nsquared_error = 174.832\nsamples = 18\nvalue = 61.828", fillcolor="#fefcfa"] ;
7 -> 8 ;
9 [label="squared_error = 34.41\nsamples = 6\nvalue = 73.3", fillcolor="#fdf5f0"] ;
8 -> 9 ;
10 [label="squared_error = 143.008\nsamples = 12\nvalue = 55.789", fillcolor="#ffffff"] ;
8 -> 10 ;
11 [label="squared_error = 1938.331\nsamples = 6\nvalue = 107.182", fillcolor="#f9e2d2"] ;
7 -> 11 ;
12 [label="LDL <= 79.9\nsquared_error = 1740.207\nsamples = 48\nvalue = 101.241", fillcolor="#fae6d7"] ;
6 -> 12 ;
13 [label="squared_error = 849.408\nsamples = 7\nvalue = 138.857", fillcolor="#f5d0b6"] ;
12 -> 13 ;
14 [label="AGE <= 56.5\nsquared_error = 1575.601\nsamples = 41\nvalue = 93.609", fillcolor="#fbeade"] ;
12 -> 14 ;
15 [label="HDL <= 59.5\nsquared_error = 1109.702\nsamples = 30\nvalue = 85.059", fillcolor="#fcefe5"] ;
14 -> 15 ;
16 [label="BP <= 94.0\nsquared_error = 819.1\nsamples = 20\nvalue = 75.378", fillcolor="#fdf4ee"] ;
15 -> 16 ;
17 [label="squared_error = 897.52\nsamples = 12\nvalue = 84.957", fillcolor="#fcefe5"] ;
16 -> 17 ;
18 [label="squared_error = 291.944\nsamples = 8\nvalue = 59.643", fillcolor="#fffdfc"] ;
16 -> 18 ;
19 [label="squared_error = 975.515\nsamples = 10\nvalue = 110.643", fillcolor="#f9e0cf"] ;
15 -> 19 ;
20 [label="squared_error = 2101.694\nsamples = 11\nvalue = 117.833", fillcolor="#f8dcc8"] ;
14 -> 20 ;
21 [label="AGE <= 60.5\nsquared_error = 2780.801\nsamples = 24\nvalue = 169.615", fillcolor="#f2bf9b"] ;
1 -> 21 ;
22 [label="LTG <= 5.007\nsquared_error = 2405.139\nsamples = 17\nvalue = 145.833", fillcolor="#f5cdb0"] ;
21 -> 22 ;
23 [label="squared_error = 1935.143\nsamples = 6\nvalue = 195.0", fillcolor="#efb184"] ;
22 -> 23 ;
24 [label="squared_error = 1193.419\nsamples = 11\nvalue = 125.588", fillcolor="#f7d8c2"] ;
22 -> 24 ;
25 [label="squared_error = 1029.022\nsamples = 7\nvalue = 207.667", fillcolor="#edaa79"] ;
21 -> 25 ;
26 [label="BP <= 102.0\nsquared_error = 5071.823\nsamples = 71\nvalue = 216.684", fillcolor="#eca571"] ;
0 -> 26 [labeldistance=2.5, labelangle=-45, headlabel="False"] ;
27 [label="LTG <= 4.525\nsquared_error = 4813.931\nsamples = 36\nvalue = 184.738", fillcolor="#f0b78d"] ;
26 -> 27 ;
28 [label="squared_error = 2757.901\nsamples = 13\nvalue = 134.909", fillcolor="#f6d3b9"] ;
27 -> 28 ;
29 [label="HDL <= 40.0\nsquared_error = 3783.053\nsamples = 23\nvalue = 212.846", fillcolor="#eda775"] ;
27 -> 29 ;
30 [label="squared_error = 1068.188\nsamples = 8\nvalue = 174.25", fillcolor="#f1bd97"] ;
29 -> 30 ;
31 [label="BMI <= 29.25\nsquared_error = 3914.473\nsamples = 15\nvalue = 239.696", fillcolor="#ea985d"] ;
29 -> 31 ;
32 [label="squared_error = 869.101\nsamples = 8\nvalue = 262.769", fillcolor="#e78b49"] ;
31 -> 32 ;
33 [label="squared_error = 6281.61\nsamples = 7\nvalue = 209.7", fillcolor="#eda977"] ;
31 -> 33 ;
34 [label="LDL <= 113.1\nsquared_error = 3030.143\nsamples = 35\nvalue = 251.482", fillcolor="#e89153"] ;
26 -> 34 ;
35 [label="squared_error = 887.789\nsamples = 13\nvalue = 280.63", fillcolor="#e58139"] ;
34 -> 35 ;
36 [label="BP <= 112.5\nsquared_error = 3497.329\nsamples = 22\nvalue = 224.345", fillcolor="#eca16b"] ;
34 -> 36 ;
37 [label="squared_error = 3830.34\nsamples = 11\nvalue = 193.312", fillcolor="#efb286"] ;
36 -> 37 ;
38 [label="squared_error = 443.479\nsamples = 11\nvalue = 262.538", fillcolor="#e78b49"] ;
36 -> 38 ;
}