digraph Tree {
node [shape=box, style="filled", color="black", fontname="helvetica"] ;
edge [fontname="helvetica"] ;
0 [label="BMI <= 26.35\nsquared_error = 5463.444\nsamples = 198\nvalue = 148.401", fillcolor="#f4cbae"] ;
1 [label="LTG <= 4.61\nsquared_error = 2476.413\nsamples = 106\nvalue = 106.456", fillcolor="#f9e2d2"] ;
0 -> 1 [labeldistance=2.5, labelangle=45, headlabel="True"] ;
2 [label="AGE <= 58.0\nsquared_error = 1836.359\nsamples = 70\nvalue = 90.349", fillcolor="#fbebdf"] ;
1 -> 2 ;
3 [label="CHOLESTEROL <= 134.5\nsquared_error = 1111.274\nsamples = 56\nvalue = 82.872", fillcolor="#fcefe6"] ;
2 -> 3 ;
4 [label="squared_error = 1452.196\nsamples = 12\nvalue = 111.733", fillcolor="#f8dfcd"] ;
3 -> 4 ;
5 [label="BP <= 76.5\nsquared_error = 826.09\nsamples = 44\nvalue = 76.775", fillcolor="#fcf2eb"] ;
3 -> 5 ;
6 [label="squared_error = 151.109\nsamples = 6\nvalue = 53.125", fillcolor="#ffffff"] ;
5 -> 6 ;
7 [label="AGE <= 40.0\nsquared_error = 831.76\nsamples = 38\nvalue = 79.778", fillcolor="#fcf1e8"] ;
5 -> 7 ;
8 [label="BMI <= 24.25\nsquared_error = 1248.572\nsamples = 15\nvalue = 89.864", fillcolor="#fbebe0"] ;
7 -> 8 ;
9 [label="squared_error = 889.951\nsamples = 7\nvalue = 110.778", fillcolor="#f9e0ce"] ;
8 -> 9 ;
10 [label="squared_error = 984.391\nsamples = 8\nvalue = 75.385", fillcolor="#fdf3ec"] ;
8 -> 10 ;
11 [label="BP <= 90.5\nsquared_error = 524.232\nsamples = 23\nvalue = 74.366", fillcolor="#fdf3ed"] ;
7 -> 11 ;
12 [label="GLUCOSE <= 83.5\nsquared_error = 351.592\nsamples = 14\nvalue = 67.154", fillcolor="#fdf7f3"] ;
11 -> 12 ;
13 [label="squared_error = 216.265\nsamples = 6\nvalue = 77.857", fillcolor="#fcf2ea"] ;
12 -> 13 ;
14 [label="squared_error = 219.889\nsamples = 8\nvalue = 54.667", fillcolor="#fffefe"] ;
12 -> 14 ;
15 [label="squared_error = 577.049\nsamples = 9\nvalue = 86.867", fillcolor="#fbede2"] ;
11 -> 15 ;
16 [label="BP <= 92.0\nsquared_error = 3680.15\nsamples = 14\nvalue = 122.5", fillcolor="#f7d9c4"] ;
2 -> 16 ;
17 [label="squared_error = 349.884\nsamples = 7\nvalue = 88.545", fillcolor="#fbece1"] ;
16 -> 17 ;
18 [label="squared_error = 4619.111\nsamples = 7\nvalue = 164.0", fillcolor="#f3c3a0"] ;
16 -> 18 ;
19 [label="TCH <= 3.51\nsquared_error = 2174.321\nsamples = 36\nvalue = 139.288", fillcolor="#f5d0b6"] ;
1 -> 19 ;
20 [label="squared_error = 2736.776\nsamples = 6\nvalue = 187.714", fillcolor="#f0b68c"] ;
19 -> 20 ;
21 [label="LDL <= 120.5\nsquared_error = 1665.296\nsamples = 30\nvalue = 131.756", fillcolor="#f6d4bc"] ;
19 -> 21 ;
22 [label="squared_error = 1277.031\nsamples = 13\nvalue = 105.294", fillcolor="#f9e3d3"] ;
21 -> 22 ;
23 [label="BMI <= 25.35\nsquared_error = 1217.79\nsamples = 17\nvalue = 147.821", fillcolor="#f4ccae"] ;
21 -> 23 ;
24 [label="squared_error = 947.429\nsamples = 11\nvalue = 160.789", fillcolor="#f3c5a3"] ;
23 -> 24 ;
25 [label="squared_error = 684.025\nsamples = 6\nvalue = 120.444", fillcolor="#f7dac6"] ;
23 -> 25 ;
26 [label="LTG <= 4.931\nsquared_error = 4821.61\nsamples = 92\nvalue = 192.291", fillcolor="#efb388"] ;
0 -> 26 [labeldistance=2.5, labelangle=-45, headlabel="False"] ;
27 [label="BMI <= 33.85\nsquared_error = 4085.181\nsamples = 52\nvalue = 161.6", fillcolor="#f3c4a2"] ;
26 -> 27 ;
28 [label="HDL <= 45.0\nsquared_error = 3542.457\nsamples = 45\nvalue = 155.519", fillcolor="#f4c7a8"] ;
27 -> 28 ;
29 [label="BP <= 102.0\nsquared_error = 3050.561\nsamples = 23\nvalue = 171.783", fillcolor="#f2bf9a"] ;
28 -> 29 ;
30 [label="GLUCOSE <= 92.5\nsquared_error = 2193.191\nsamples = 14\nvalue = 157.5", fillcolor="#f3c6a6"] ;
29 -> 30 ;
31 [label="squared_error = 1662.076\nsamples = 6\nvalue = 179.083", fillcolor="#f1bb94"] ;
30 -> 31 ;
32 [label="squared_error = 2090.198\nsamples = 8\nvalue = 145.727", fillcolor="#f5cdb0"] ;
30 -> 32 ;
33 [label="squared_error = 3264.188\nsamples = 9\nvalue = 212.25", fillcolor="#eda977"] ;
29 -> 33 ;
34 [label="GLUCOSE <= 91.5\nsquared_error = 3297.528\nsamples = 22\nvalue = 131.387", fillcolor="#f6d5bc"] ;
28 -> 34 ;
35 [label="squared_error = 3366.49\nsamples = 13\nvalue = 164.286", fillcolor="#f3c3a0"] ;
34 -> 35 ;
36 [label="squared_error = 1615.384\nsamples = 9\nvalue = 104.294", fillcolor="#f9e3d3"] ;
34 -> 36 ;
37 [label="squared_error = 5527.859\nsamples = 7\nvalue = 220.125", fillcolor="#eca471"] ;
27 -> 37 ;
38 [label="LDL <= 142.1\nsquared_error = 2994.543\nsamples = 40\nvalue = 231.818", fillcolor="#eb9e67"] ;
26 -> 38 ;
39 [label="BMI <= 27.9\nsquared_error = 2342.598\nsamples = 31\nvalue = 247.569", fillcolor="#e99559"] ;
38 -> 39 ;
40 [label="squared_error = 2395.136\nsamples = 6\nvalue = 188.556", fillcolor="#f0b68c"] ;
39 -> 40 ;
41 [label="BMI <= 31.45\nsquared_error = 1425.168\nsamples = 25\nvalue = 260.214", fillcolor="#e88f4e"] ;
39 -> 41 ;
42 [label="squared_error = 1507.996\nsamples = 10\nvalue = 237.438", fillcolor="#ea9b62"] ;
41 -> 42 ;
43 [label="AGE <= 56.0\nsquared_error = 858.485\nsamples = 15\nvalue = 274.231", fillcolor="#e68742"] ;
41 -> 43 ;
44 [label="squared_error = 392.25\nsamples = 6\nvalue = 256.5", fillcolor="#e89152"] ;
43 -> 44 ;
45 [label="squared_error = 830.59\nsamples = 9\nvalue = 285.312", fillcolor="#e58139"] ;
43 -> 45 ;
46 [label="squared_error = 1499.929\nsamples = 9\nvalue = 178.267", fillcolor="#f1bb94"] ;
38 -> 46 ;
}