digraph Tree {
node [shape=box, style="filled", color="black", fontname="helvetica"] ;
edge [fontname="helvetica"] ;
0 [label="LTG <= 4.783\nsquared_error = 5986.946\nsamples = 309\nvalue = 154.929", fillcolor="#f3c7a7"] ;
1 [label="BMI <= 27.25\nsquared_error = 3707.967\nsamples = 180\nvalue = 119.572", fillcolor="#f8dcc8"] ;
0 -> 1 [labeldistance=2.5, labelangle=45, headlabel="True"] ;
2 [label="HDL <= 55.5\nsquared_error = 2409.359\nsamples = 136\nvalue = 102.654", fillcolor="#fae6d8"] ;
1 -> 2 ;
3 [label="LTG <= 4.167\nsquared_error = 2864.512\nsamples = 78\nvalue = 118.115", fillcolor="#f8ddc9"] ;
2 -> 3 ;
4 [label="LDL <= 81.5\nsquared_error = 1733.987\nsamples = 20\nvalue = 95.25", fillcolor="#fbeadf"] ;
3 -> 4 ;
5 [label="squared_error = 1257.56\nsamples = 10\nvalue = 81.2", fillcolor="#fcf3ec"] ;
4 -> 5 ;
6 [label="squared_error = 1815.61\nsamples = 10\nvalue = 109.3", fillcolor="#f9e2d1"] ;
4 -> 6 ;
7 [label="CHOLESTEROL <= 151.0\nsquared_error = 3011.897\nsamples = 58\nvalue = 126.0", fillcolor="#f7d8c2"] ;
3 -> 7 ;
8 [label="squared_error = 1829.322\nsamples = 11\nvalue = 164.364", fillcolor="#f2c19e"] ;
7 -> 8 ;
9 [label="GENDER <= 0.5\nsquared_error = 2863.595\nsamples = 47\nvalue = 117.021", fillcolor="#f8ddca"] ;
7 -> 9 ;
10 [label="HDL <= 43.5\nsquared_error = 1989.722\nsamples = 25\nvalue = 97.28", fillcolor="#fae9dd"] ;
9 -> 10 ;
11 [label="squared_error = 2814.0\nsamples = 10\nvalue = 115.0", fillcolor="#f8dfcc"] ;
10 -> 11 ;
12 [label="squared_error = 1091.316\nsamples = 15\nvalue = 85.467", fillcolor="#fcf0e8"] ;
10 -> 12 ;
13 [label="LDL <= 119.0\nsquared_error = 2910.521\nsamples = 22\nvalue = 139.455", fillcolor="#f5d0b5"] ;
9 -> 13 ;
14 [label="squared_error = 2385.091\nsamples = 11\nvalue = 111.0", fillcolor="#f9e1d0"] ;
13 -> 14 ;
15 [label="squared_error = 1816.628\nsamples = 11\nvalue = 167.909", fillcolor="#f2bf9b"] ;
13 -> 15 ;
16 [label="AGE <= 55.5\nsquared_error = 1043.464\nsamples = 58\nvalue = 81.862", fillcolor="#fcf2eb"] ;
2 -> 16 ;
17 [label="AGE <= 38.0\nsquared_error = 754.322\nsamples = 43\nvalue = 75.837", fillcolor="#fdf6f1"] ;
16 -> 17 ;
18 [label="squared_error = 979.408\nsamples = 13\nvalue = 90.769", fillcolor="#fbede3"] ;
17 -> 18 ;
19 [label="AGE <= 48.5\nsquared_error = 518.299\nsamples = 30\nvalue = 69.367", fillcolor="#fefaf7"] ;
17 -> 19 ;
20 [label="squared_error = 401.301\nsamples = 17\nvalue = 60.412", fillcolor="#ffffff"] ;
19 -> 20 ;
21 [label="squared_error = 429.302\nsamples = 13\nvalue = 81.077", fillcolor="#fcf3ec"] ;
19 -> 21 ;
22 [label="squared_error = 1469.982\nsamples = 15\nvalue = 99.133", fillcolor="#fae8db"] ;
16 -> 22 ;
23 [label="CHOLESTEROL <= 185.5\nsquared_error = 4102.8\nsamples = 44\nvalue = 171.864", fillcolor="#f1bd97"] ;
1 -> 23 ;
24 [label="BP <= 101.5\nsquared_error = 3923.007\nsamples = 27\nvalue = 150.741", fillcolor="#f4caab"] ;
23 -> 24 ;
25 [label="squared_error = 1654.678\nsamples = 17\nvalue = 128.294", fillcolor="#f7d7c0"] ;
24 -> 25 ;
26 [label="squared_error = 5466.49\nsamples = 10\nvalue = 188.9", fillcolor="#efb387"] ;
24 -> 26 ;
27 [label="squared_error = 2554.242\nsamples = 17\nvalue = 205.412", fillcolor="#eda978"] ;
23 -> 27 ;
28 [label="BP <= 111.5\nsquared_error = 4988.69\nsamples = 129\nvalue = 204.264", fillcolor="#edaa79"] ;
0 -> 28 [labeldistance=2.5, labelangle=-45, headlabel="False"] ;
29 [label="BMI <= 24.3\nsquared_error = 4975.628\nsamples = 100\nvalue = 188.45", fillcolor="#efb388"] ;
28 -> 29 ;
30 [label="squared_error = 2730.592\nsamples = 13\nvalue = 115.846", fillcolor="#f8decb"] ;
29 -> 30 ;
31 [label="GLUCOSE <= 100.5\nsquared_error = 4405.727\nsamples = 87\nvalue = 199.299", fillcolor="#eead7e"] ;
29 -> 31 ;
32 [label="LDL <= 148.2\nsquared_error = 4133.577\nsamples = 61\nvalue = 181.885", fillcolor="#f0b78e"] ;
31 -> 32 ;
33 [label="GENDER <= 0.5\nsquared_error = 4125.044\nsamples = 42\nvalue = 196.167", fillcolor="#eeaf81"] ;
32 -> 33 ;
34 [label="LDL <= 117.3\nsquared_error = 2882.911\nsamples = 23\nvalue = 177.043", fillcolor="#f1ba92"] ;
33 -> 34 ;
35 [label="squared_error = 1549.818\nsamples = 11\nvalue = 147.0", fillcolor="#f4ccae"] ;
34 -> 35 ;
36 [label="squared_error = 2519.076\nsamples = 12\nvalue = 204.583", fillcolor="#edaa79"] ;
34 -> 36 ;
37 [label="squared_error = 4650.111\nsamples = 19\nvalue = 219.316", fillcolor="#eca16b"] ;
33 -> 37 ;
38 [label="squared_error = 2704.953\nsamples = 19\nvalue = 150.316", fillcolor="#f4caab"] ;
32 -> 38 ;
39 [label="LDL <= 128.5\nsquared_error = 2663.669\nsamples = 26\nvalue = 240.154", fillcolor="#e99558"] ;
31 -> 39 ;
40 [label="squared_error = 1360.49\nsamples = 14\nvalue = 260.714", fillcolor="#e78845"] ;
39 -> 40 ;
41 [label="squared_error = 3115.472\nsamples = 12\nvalue = 216.167", fillcolor="#eca36e"] ;
39 -> 41 ;
42 [label="HDL <= 41.5\nsquared_error = 1197.957\nsamples = 29\nvalue = 258.793", fillcolor="#e78a46"] ;
28 -> 42 ;
43 [label="squared_error = 650.746\nsamples = 13\nvalue = 273.154", fillcolor="#e58139"] ;
42 -> 43 ;
44 [label="squared_error = 1338.859\nsamples = 16\nvalue = 247.125", fillcolor="#e89051"] ;
42 -> 44 ;
}